digraph Tree {
node [shape=box, style="filled, rounded", color="black", fontname=helvetica] ;
edge [fontname=helvetica] ;
0 [label=<diameter &le; 9.935<br/>gini = 0.5<br/>samples = 9000<br/>value = [4491, 4509]<br/>class = grapefruit>, fillcolor="#feffff"] ;
1 [label=<diameter &le; 9.055<br/>gini = 0.188<br/>samples = 4429<br/>value = [3965, 464]<br/>class = orange>, fillcolor="#e89050"] ;
0 -> 1 [labeldistance=2.5, labelangle=45, headlabel="True"] ;
2 [label=<diameter &le; 8.495<br/>gini = 0.051<br/>samples = 3149<br/>value = [3066, 83]<br/>class = orange>, fillcolor="#e6843e"] ;
1 -> 2 ;
3 [label=<diameter &le; 8.175<br/>gini = 0.019<br/>samples = 2284<br/>value = [2262, 22]<br/>class = orange>, fillcolor="#e5823b"] ;
2 -> 3 ;
4 [label=<diameter &le; 7.625<br/>gini = 0.009<br/>samples = 1812<br/>value = [1804, 8]<br/>class = orange>, fillcolor="#e5823a"] ;
3 -> 4 ;
5 [label=<gini = 0.0<br/>samples = 1091<br/>value = [1091, 0]<br/>class = orange>, fillcolor="#e58139"] ;
4 -> 5 ;
6 [label=<weight &le; 139.545<br/>gini = 0.022<br/>samples = 721<br/>value = [713, 8]<br/>class = orange>, fillcolor="#e5823b"] ;
4 -> 6 ;
7 [label=<gini = 0.0<br/>samples = 8<br/>value = [0, 8]<br/>class = grapefruit>, fillcolor="#399de5"] ;
6 -> 7 ;
8 [label=<gini = 0.0<br/>samples = 713<br/>value = [713, 0]<br/>class = orange>, fillcolor="#e58139"] ;
6 -> 8 ;
9 [label=<weight &le; 147.945<br/>gini = 0.058<br/>samples = 472<br/>value = [458, 14]<br/>class = orange>, fillcolor="#e6853f"] ;
3 -> 9 ;
10 [label=<gini = 0.0<br/>samples = 14<br/>value = [0, 14]<br/>class = grapefruit>, fillcolor="#399de5"] ;
9 -> 10 ;
11 [label=<gini = 0.0<br/>samples = 458<br/>value = [458, 0]<br/>class = orange>, fillcolor="#e58139"] ;
9 -> 11 ;
12 [label=<weight &le; 152.845<br/>gini = 0.131<br/>samples = 865<br/>value = [804, 61]<br/>class = orange>, fillcolor="#e78b48"] ;
2 -> 12 ;
13 [label=<gini = 0.0<br/>samples = 26<br/>value = [0, 26]<br/>class = grapefruit>, fillcolor="#399de5"] ;
12 -> 13 ;
14 [label=<diameter &le; 8.795<br/>gini = 0.08<br/>samples = 839<br/>value = [804, 35]<br/>class = orange>, fillcolor="#e68642"] ;
12 -> 14 ;
15 [label=<gini = 0.0<br/>samples = 440<br/>value = [440, 0]<br/>class = orange>, fillcolor="#e58139"] ;
14 -> 15 ;
16 [label=<weight &le; 157.285<br/>gini = 0.16<br/>samples = 399<br/>value = [364, 35]<br/>class = orange>, fillcolor="#e88d4c"] ;
14 -> 16 ;
17 [label=<gini = 0.0<br/>samples = 35<br/>value = [0, 35]<br/>class = grapefruit>, fillcolor="#399de5"] ;
16 -> 17 ;
18 [label=<gini = 0.0<br/>samples = 364<br/>value = [364, 0]<br/>class = orange>, fillcolor="#e58139"] ;
16 -> 18 ;
19 [label=<weight &le; 161.6<br/>gini = 0.418<br/>samples = 1280<br/>value = [899, 381]<br/>class = orange>, fillcolor="#f0b68d"] ;
1 -> 19 ;
20 [label=<gini = 0.0<br/>samples = 66<br/>value = [0, 66]<br/>class = grapefruit>, fillcolor="#399de5"] ;
19 -> 20 ;
21 [label=<diameter &le; 9.255<br/>gini = 0.384<br/>samples = 1214<br/>value = [899, 315]<br/>class = orange>, fillcolor="#eead7e"] ;
19 -> 21 ;
22 [label=<gini = 0.0<br/>samples = 258<br/>value = [258, 0]<br/>class = orange>, fillcolor="#e58139"] ;
21 -> 22 ;
23 [label=<weight &le; 164.62<br/>gini = 0.442<br/>samples = 956<br/>value = [641, 315]<br/>class = orange>, fillcolor="#f2bf9a"] ;
21 -> 23 ;
24 [label=<gini = 0.0<br/>samples = 52<br/>value = [0, 52]<br/>class = grapefruit>, fillcolor="#399de5"] ;
23 -> 24 ;
25 [label=<diameter &le; 9.425<br/>gini = 0.413<br/>samples = 904<br/>value = [641, 263]<br/>class = orange>, fillcolor="#f0b58a"] ;
23 -> 25 ;
26 [label=<gini = 0.0<br/>samples = 171<br/>value = [171, 0]<br/>class = orange>, fillcolor="#e58139"] ;
25 -> 26 ;
27 [label=<weight &le; 167.26<br/>gini = 0.46<br/>samples = 733<br/>value = [470, 263]<br/>class = orange>, fillcolor="#f4c8a8"] ;
25 -> 27 ;
28 [label=<gini = 0.0<br/>samples = 58<br/>value = [0, 58]<br/>class = grapefruit>, fillcolor="#399de5"] ;
27 -> 28 ;
29 [label=<diameter &le; 9.575<br/>gini = 0.423<br/>samples = 675<br/>value = [470, 205]<br/>class = orange>, fillcolor="#f0b88f"] ;
27 -> 29 ;
30 [label=<gini = 0.0<br/>samples = 163<br/>value = [163, 0]<br/>class = orange>, fillcolor="#e58139"] ;
29 -> 30 ;
31 [label=<weight &le; 169.73<br/>gini = 0.48<br/>samples = 512<br/>value = [307, 205]<br/>class = orange>, fillcolor="#f6d5bd"] ;
29 -> 31 ;
32 [label=<gini = 0.0<br/>samples = 77<br/>value = [0, 77]<br/>class = grapefruit>, fillcolor="#399de5"] ;
31 -> 32 ;
33 [label=<diameter &le; 9.705<br/>gini = 0.415<br/>samples = 435<br/>value = [307, 128]<br/>class = orange>, fillcolor="#f0b68c"] ;
31 -> 33 ;
34 [label=<weight &le; 169.78<br/>gini = 0.015<br/>samples = 136<br/>value = [135, 1]<br/>class = orange>, fillcolor="#e5823a"] ;
33 -> 34 ;
35 [label=<weight &le; 169.765<br/>gini = 0.32<br/>samples = 5<br/>value = [4, 1]<br/>class = orange>, fillcolor="#eca06a"] ;
34 -> 35 ;
36 [label=<gini = 0.0<br/>samples = 4<br/>value = [4, 0]<br/>class = orange>, fillcolor="#e58139"] ;
35 -> 36 ;
37 [label=<gini = 0.0<br/>samples = 1<br/>value = [0, 1]<br/>class = grapefruit>, fillcolor="#399de5"] ;
35 -> 37 ;
38 [label=<gini = 0.0<br/>samples = 131<br/>value = [131, 0]<br/>class = orange>, fillcolor="#e58139"] ;
34 -> 38 ;
39 [label=<weight &le; 171.82<br/>gini = 0.489<br/>samples = 299<br/>value = [172, 127]<br/>class = orange>, fillcolor="#f8decb"] ;
33 -> 39 ;
40 [label=<gini = 0.0<br/>samples = 63<br/>value = [0, 63]<br/>class = grapefruit>, fillcolor="#399de5"] ;
39 -> 40 ;
41 [label=<diameter &le; 9.825<br/>gini = 0.395<br/>samples = 236<br/>value = [172, 64]<br/>class = orange>, fillcolor="#efb083"] ;
39 -> 41 ;
42 [label=<gini = 0.0<br/>samples = 92<br/>value = [92, 0]<br/>class = orange>, fillcolor="#e58139"] ;
41 -> 42 ;
43 [label=<weight &le; 173.495<br/>gini = 0.494<br/>samples = 144<br/>value = [80, 64]<br/>class = orange>, fillcolor="#fae6d7"] ;
41 -> 43 ;
44 [label=<gini = 0.0<br/>samples = 64<br/>value = [0, 64]<br/>class = grapefruit>, fillcolor="#399de5"] ;
43 -> 44 ;
45 [label=<gini = 0.0<br/>samples = 80<br/>value = [80, 0]<br/>class = orange>, fillcolor="#e58139"] ;
43 -> 45 ;
46 [label=<weight &le; 188.525<br/>gini = 0.204<br/>samples = 4571<br/>value = [526, 4045]<br/>class = grapefruit>, fillcolor="#53aae8"] ;
0 -> 46 [labeldistance=2.5, labelangle=-45, headlabel="False"] ;
47 [label=<weight &le; 175.335<br/>gini = 0.421<br/>samples = 1377<br/>value = [414, 963]<br/>class = grapefruit>, fillcolor="#8ec7f0"] ;
46 -> 47 ;
48 [label=<gini = 0.0<br/>samples = 112<br/>value = [0, 112]<br/>class = grapefruit>, fillcolor="#399de5"] ;
47 -> 48 ;
49 [label=<diameter &le; 10.075<br/>gini = 0.44<br/>samples = 1265<br/>value = [414, 851]<br/>class = grapefruit>, fillcolor="#99cdf2"] ;
47 -> 49 ;
50 [label=<weight &le; 175.485<br/>gini = 0.097<br/>samples = 98<br/>value = [93, 5]<br/>class = orange>, fillcolor="#e68844"] ;
49 -> 50 ;
51 [label=<diameter &le; 10.01<br/>gini = 0.459<br/>samples = 14<br/>value = [9, 5]<br/>class = orange>, fillcolor="#f3c7a7"] ;
50 -> 51 ;
52 [label=<gini = 0.0<br/>samples = 9<br/>value = [9, 0]<br/>class = orange>, fillcolor="#e58139"] ;
51 -> 52 ;
53 [label=<gini = 0.0<br/>samples = 5<br/>value = [0, 5]<br/>class = grapefruit>, fillcolor="#399de5"] ;
51 -> 53 ;
54 [label=<gini = 0.0<br/>samples = 84<br/>value = [84, 0]<br/>class = orange>, fillcolor="#e58139"] ;
50 -> 54 ;
55 [label=<diameter &le; 10.895<br/>gini = 0.399<br/>samples = 1167<br/>value = [321, 846]<br/>class = grapefruit>, fillcolor="#84c2ef"] ;
49 -> 55 ;
56 [label=<diameter &le; 10.415<br/>gini = 0.387<br/>samples = 1147<br/>value = [301, 846]<br/>class = grapefruit>, fillcolor="#7fc0ee"] ;
55 -> 56 ;
57 [label=<weight &le; 180.22<br/>gini = 0.467<br/>samples = 436<br/>value = [162, 274]<br/>class = grapefruit>, fillcolor="#aed7f4"] ;
56 -> 57 ;
58 [label=<diameter &le; 10.325<br/>gini = 0.42<br/>samples = 386<br/>value = [116, 270]<br/>class = grapefruit>, fillcolor="#8ec7f0"] ;
57 -> 58 ;
59 [label=<weight &le; 177.015<br/>gini = 0.473<br/>samples = 302<br/>value = [116, 186]<br/>class = grapefruit>, fillcolor="#b4daf5"] ;
58 -> 59 ;
60 [label=<gini = 0.0<br/>samples = 82<br/>value = [0, 82]<br/>class = grapefruit>, fillcolor="#399de5"] ;
59 -> 60 ;
61 [label=<diameter &le; 10.175<br/>gini = 0.499<br/>samples = 220<br/>value = [116, 104]<br/>class = orange>, fillcolor="#fcf2eb"] ;
59 -> 61 ;
62 [label=<gini = 0.0<br/>samples = 54<br/>value = [54, 0]<br/>class = orange>, fillcolor="#e58139"] ;
61 -> 62 ;
63 [label=<weight &le; 178.515<br/>gini = 0.468<br/>samples = 166<br/>value = [62, 104]<br/>class = grapefruit>, fillcolor="#afd7f4"] ;
61 -> 63 ;
64 [label=<diameter &le; 10.185<br/>gini = 0.049<br/>samples = 80<br/>value = [2, 78]<br/>class = grapefruit>, fillcolor="#3ea0e6"] ;
63 -> 64 ;
65 [label=<weight &le; 177.81<br/>gini = 0.444<br/>samples = 6<br/>value = [2, 4]<br/>class = grapefruit>, fillcolor="#9ccef2"] ;
64 -> 65 ;
66 [label=<gini = 0.0<br/>samples = 4<br/>value = [0, 4]<br/>class = grapefruit>, fillcolor="#399de5"] ;
65 -> 66 ;
67 [label=<gini = 0.0<br/>samples = 2<br/>value = [2, 0]<br/>class = orange>, fillcolor="#e58139"] ;
65 -> 67 ;
68 [label=<gini = 0.0<br/>samples = 74<br/>value = [0, 74]<br/>class = grapefruit>, fillcolor="#399de5"] ;
64 -> 68 ;
69 [label=<diameter &le; 10.285<br/>gini = 0.422<br/>samples = 86<br/>value = [60, 26]<br/>class = orange>, fillcolor="#f0b88f"] ;
63 -> 69 ;
70 [label=<gini = 0.0<br/>samples = 39<br/>value = [39, 0]<br/>class = orange>, fillcolor="#e58139"] ;
69 -> 70 ;
71 [label=<weight &le; 179.28<br/>gini = 0.494<br/>samples = 47<br/>value = [21, 26]<br/>class = grapefruit>, fillcolor="#d9ecfa"] ;
69 -> 71 ;
72 [label=<gini = 0.0<br/>samples = 26<br/>value = [0, 26]<br/>class = grapefruit>, fillcolor="#399de5"] ;
71 -> 72 ;
73 [label=<gini = 0.0<br/>samples = 21<br/>value = [21, 0]<br/>class = orange>, fillcolor="#e58139"] ;
71 -> 73 ;
74 [label=<gini = 0.0<br/>samples = 84<br/>value = [0, 84]<br/>class = grapefruit>, fillcolor="#399de5"] ;
58 -> 74 ;
75 [label=<diameter &le; 10.405<br/>gini = 0.147<br/>samples = 50<br/>value = [46, 4]<br/>class = orange>, fillcolor="#e78c4a"] ;
57 -> 75 ;
76 [label=<gini = 0.0<br/>samples = 41<br/>value = [41, 0]<br/>class = orange>, fillcolor="#e58139"] ;
75 -> 76 ;
77 [label=<weight &le; 180.9<br/>gini = 0.494<br/>samples = 9<br/>value = [5, 4]<br/>class = orange>, fillcolor="#fae6d7"] ;
75 -> 77 ;
78 [label=<gini = 0.0<br/>samples = 4<br/>value = [0, 4]<br/>class = grapefruit>, fillcolor="#399de5"] ;
77 -> 78 ;
79 [label=<gini = 0.0<br/>samples = 5<br/>value = [5, 0]<br/>class = orange>, fillcolor="#e58139"] ;
77 -> 79 ;
80 [label=<weight &le; 181.67<br/>gini = 0.315<br/>samples = 711<br/>value = [139, 572]<br/>class = grapefruit>, fillcolor="#69b5eb"] ;
56 -> 80 ;
81 [label=<gini = 0.0<br/>samples = 85<br/>value = [0, 85]<br/>class = grapefruit>, fillcolor="#399de5"] ;
80 -> 81 ;
82 [label=<diameter &le; 10.485<br/>gini = 0.345<br/>samples = 626<br/>value = [139, 487]<br/>class = grapefruit>, fillcolor="#72b9ec"] ;
80 -> 82 ;
83 [label=<gini = 0.0<br/>samples = 20<br/>value = [20, 0]<br/>class = orange>, fillcolor="#e58139"] ;
82 -> 83 ;
84 [label=<weight &le; 187.67<br/>gini = 0.316<br/>samples = 606<br/>value = [119, 487]<br/>class = grapefruit>, fillcolor="#69b5eb"] ;
82 -> 84 ;
85 [label=<diameter &le; 10.845<br/>gini = 0.344<br/>samples = 539<br/>value = [119, 420]<br/>class = grapefruit>, fillcolor="#71b9ec"] ;
84 -> 85 ;
86 [label=<weight &le; 186.65<br/>gini = 0.322<br/>samples = 526<br/>value = [106, 420]<br/>class = grapefruit>, fillcolor="#6bb6ec"] ;
85 -> 86 ;
87 [label=<diameter &le; 10.795<br/>gini = 0.351<br/>samples = 453<br/>value = [103, 350]<br/>class = grapefruit>, fillcolor="#73baed"] ;
86 -> 87 ;
88 [label=<weight &le; 182.315<br/>gini = 0.336<br/>samples = 445<br/>value = [95, 350]<br/>class = grapefruit>, fillcolor="#6fb8ec"] ;
87 -> 88 ;
89 [label=<gini = 0.0<br/>samples = 45<br/>value = [0, 45]<br/>class = grapefruit>, fillcolor="#399de5"] ;
88 -> 89 ;
90 [label=<diameter &le; 10.535<br/>gini = 0.362<br/>samples = 400<br/>value = [95, 305]<br/>class = grapefruit>, fillcolor="#77bced"] ;
88 -> 90 ;
91 [label=<gini = 0.0<br/>samples = 18<br/>value = [18, 0]<br/>class = orange>, fillcolor="#e58139"] ;
90 -> 91 ;
92 [label=<weight &le; 186.2<br/>gini = 0.322<br/>samples = 382<br/>value = [77, 305]<br/>class = grapefruit>, fillcolor="#6bb6ec"] ;
90 -> 92 ;
93 [label=<diameter &le; 10.765<br/>gini = 0.349<br/>samples = 342<br/>value = [77, 265]<br/>class = grapefruit>, fillcolor="#73b9ed"] ;
92 -> 93 ;
94 [label=<weight &le; 185.485<br/>gini = 0.319<br/>samples = 327<br/>value = [65, 262]<br/>class = grapefruit>, fillcolor="#6ab5eb"] ;
93 -> 94 ;
95 [label=<diameter &le; 10.745<br/>gini = 0.347<br/>samples = 291<br/>value = [65, 226]<br/>class = grapefruit>, fillcolor="#72b9ec"] ;
94 -> 95 ;
96 [label=<weight &le; 182.81<br/>gini = 0.332<br/>samples = 286<br/>value = [60, 226]<br/>class = grapefruit>, fillcolor="#6eb7ec"] ;
95 -> 96 ;
97 [label=<gini = 0.0<br/>samples = 33<br/>value = [0, 33]<br/>class = grapefruit>, fillcolor="#399de5"] ;
96 -> 97 ;
98 [label=<diameter &le; 10.565<br/>gini = 0.362<br/>samples = 253<br/>value = [60, 193]<br/>class = grapefruit>, fillcolor="#77bbed"] ;
96 -> 98 ;
99 [label=<gini = 0.0<br/>samples = 10<br/>value = [10, 0]<br/>class = orange>, fillcolor="#e58139"] ;
98 -> 99 ;
100 [label=<weight &le; 183.155<br/>gini = 0.327<br/>samples = 243<br/>value = [50, 193]<br/>class = grapefruit>, fillcolor="#6cb6ec"] ;
98 -> 100 ;
101 [label=<gini = 0.0<br/>samples = 27<br/>value = [0, 27]<br/>class = grapefruit>, fillcolor="#399de5"] ;
100 -> 101 ;
102 [label=<diameter &le; 10.595<br/>gini = 0.356<br/>samples = 216<br/>value = [50, 166]<br/>class = grapefruit>, fillcolor="#75bbed"] ;
100 -> 102 ;
103 [label=<gini = 0.0<br/>samples = 10<br/>value = [10, 0]<br/>class = orange>, fillcolor="#e58139"] ;
102 -> 103 ;
104 [label=<diameter &le; 10.675<br/>gini = 0.313<br/>samples = 206<br/>value = [40, 166]<br/>class = grapefruit>, fillcolor="#69b5eb"] ;
102 -> 104 ;
105 [label=<weight &le; 184.52<br/>gini = 0.383<br/>samples = 116<br/>value = [30, 86]<br/>class = grapefruit>, fillcolor="#7ebfee"] ;
104 -> 105 ;
106 [label=<diameter &le; 10.655<br/>gini = 0.315<br/>samples = 107<br/>value = [21, 86]<br/>class = grapefruit>, fillcolor="#69b5eb"] ;
105 -> 106 ;
107 [label=<weight &le; 184.2<br/>gini = 0.381<br/>samples = 82<br/>value = [21, 61]<br/>class = grapefruit>, fillcolor="#7dbfee"] ;
106 -> 107 ;
108 [label=<diameter &le; 10.635<br/>gini = 0.29<br/>samples = 74<br/>value = [13, 61]<br/>class = grapefruit>, fillcolor="#63b2eb"] ;
107 -> 108 ;
109 [label=<weight &le; 183.825<br/>gini = 0.38<br/>samples = 51<br/>value = [13, 38]<br/>class = grapefruit>, fillcolor="#7dbfee"] ;
108 -> 109 ;
110 [label=<weight &le; 183.56<br/>gini = 0.206<br/>samples = 43<br/>value = [5, 38]<br/>class = grapefruit>, fillcolor="#53aae8"] ;
109 -> 110 ;
111 [label=<gini = 0.0<br/>samples = 22<br/>value = [0, 22]<br/>class = grapefruit>, fillcolor="#399de5"] ;
110 -> 111 ;
112 [label=<diameter &le; 10.615<br/>gini = 0.363<br/>samples = 21<br/>value = [5, 16]<br/>class = grapefruit>, fillcolor="#77bced"] ;
110 -> 112 ;
113 [label=<gini = 0.0<br/>samples = 5<br/>value = [5, 0]<br/>class = orange>, fillcolor="#e58139"] ;
112 -> 113 ;
114 [label=<gini = 0.0<br/>samples = 16<br/>value = [0, 16]<br/>class = grapefruit>, fillcolor="#399de5"] ;
112 -> 114 ;
115 [label=<gini = 0.0<br/>samples = 8<br/>value = [8, 0]<br/>class = orange>, fillcolor="#e58139"] ;
109 -> 115 ;
116 [label=<gini = 0.0<br/>samples = 23<br/>value = [0, 23]<br/>class = grapefruit>, fillcolor="#399de5"] ;
108 -> 116 ;
117 [label=<gini = 0.0<br/>samples = 8<br/>value = [8, 0]<br/>class = orange>, fillcolor="#e58139"] ;
107 -> 117 ;
118 [label=<gini = 0.0<br/>samples = 25<br/>value = [0, 25]<br/>class = grapefruit>, fillcolor="#399de5"] ;
106 -> 118 ;
119 [label=<gini = 0.0<br/>samples = 9<br/>value = [9, 0]<br/>class = orange>, fillcolor="#e58139"] ;
105 -> 119 ;
120 [label=<diameter &le; 10.735<br/>gini = 0.198<br/>samples = 90<br/>value = [10, 80]<br/>class = grapefruit>, fillcolor="#52a9e8"] ;
104 -> 120 ;
121 [label=<weight &le; 185.005<br/>gini = 0.119<br/>samples = 79<br/>value = [5, 74]<br/>class = grapefruit>, fillcolor="#46a4e7"] ;
120 -> 121 ;
122 [label=<diameter &le; 10.705<br/>gini = 0.198<br/>samples = 45<br/>value = [5, 40]<br/>class = grapefruit>, fillcolor="#52a9e8"] ;
121 -> 122 ;
123 [label=<diameter &le; 10.695<br/>gini = 0.091<br/>samples = 42<br/>value = [2, 40]<br/>class = grapefruit>, fillcolor="#43a2e6"] ;
122 -> 123 ;
124 [label=<gini = 0.0<br/>samples = 31<br/>value = [0, 31]<br/>class = grapefruit>, fillcolor="#399de5"] ;
123 -> 124 ;
125 [label=<weight &le; 184.865<br/>gini = 0.298<br/>samples = 11<br/>value = [2, 9]<br/>class = grapefruit>, fillcolor="#65b3eb"] ;
123 -> 125 ;
126 [label=<weight &le; 184.845<br/>gini = 0.444<br/>samples = 3<br/>value = [2, 1]<br/>class = orange>, fillcolor="#f2c09c"] ;
125 -> 126 ;
127 [label=<gini = 0.0<br/>samples = 1<br/>value = [1, 0]<br/>class = orange>, fillcolor="#e58139"] ;
126 -> 127 ;
128 [label=<weight &le; 184.855<br/>gini = 0.5<br/>samples = 2<br/>value = [1, 1]<br/>class = orange>, fillcolor="#ffffff"] ;
126 -> 128 ;
129 [label=<gini = 0.0<br/>samples = 1<br/>value = [0, 1]<br/>class = grapefruit>, fillcolor="#399de5"] ;
128 -> 129 ;
130 [label=<gini = 0.0<br/>samples = 1<br/>value = [1, 0]<br/>class = orange>, fillcolor="#e58139"] ;
128 -> 130 ;
131 [label=<gini = 0.0<br/>samples = 8<br/>value = [0, 8]<br/>class = grapefruit>, fillcolor="#399de5"] ;
125 -> 131 ;
132 [label=<gini = 0.0<br/>samples = 3<br/>value = [3, 0]<br/>class = orange>, fillcolor="#e58139"] ;
122 -> 132 ;
133 [label=<gini = 0.0<br/>samples = 34<br/>value = [0, 34]<br/>class = grapefruit>, fillcolor="#399de5"] ;
121 -> 133 ;
134 [label=<weight &le; 185.39<br/>gini = 0.496<br/>samples = 11<br/>value = [5, 6]<br/>class = grapefruit>, fillcolor="#deeffb"] ;
120 -> 134 ;
135 [label=<gini = 0.0<br/>samples = 5<br/>value = [5, 0]<br/>class = orange>, fillcolor="#e58139"] ;
134 -> 135 ;
136 [label=<gini = 0.0<br/>samples = 6<br/>value = [0, 6]<br/>class = grapefruit>, fillcolor="#399de5"] ;
134 -> 136 ;
137 [label=<gini = 0.0<br/>samples = 5<br/>value = [5, 0]<br/>class = orange>, fillcolor="#e58139"] ;
95 -> 137 ;
138 [label=<gini = 0.0<br/>samples = 36<br/>value = [0, 36]<br/>class = grapefruit>, fillcolor="#399de5"] ;
94 -> 138 ;
139 [label=<diameter &le; 10.775<br/>gini = 0.32<br/>samples = 15<br/>value = [12, 3]<br/>class = orange>, fillcolor="#eca06a"] ;
93 -> 139 ;
140 [label=<weight &le; 185.975<br/>gini = 0.49<br/>samples = 7<br/>value = [4, 3]<br/>class = orange>, fillcolor="#f8e0ce"] ;
139 -> 140 ;
141 [label=<gini = 0.0<br/>samples = 4<br/>value = [4, 0]<br/>class = orange>, fillcolor="#e58139"] ;
140 -> 141 ;
142 [label=<gini = 0.0<br/>samples = 3<br/>value = [0, 3]<br/>class = grapefruit>, fillcolor="#399de5"] ;
140 -> 142 ;
143 [label=<gini = 0.0<br/>samples = 8<br/>value = [8, 0]<br/>class = orange>, fillcolor="#e58139"] ;
139 -> 143 ;
144 [label=<gini = 0.0<br/>samples = 40<br/>value = [0, 40]<br/>class = grapefruit>, fillcolor="#399de5"] ;
92 -> 144 ;
145 [label=<gini = 0.0<br/>samples = 8<br/>value = [8, 0]<br/>class = orange>, fillcolor="#e58139"] ;
87 -> 145 ;
146 [label=<diameter &le; 10.835<br/>gini = 0.079<br/>samples = 73<br/>value = [3, 70]<br/>class = grapefruit>, fillcolor="#41a1e6"] ;
86 -> 146 ;
147 [label=<weight &le; 186.775<br/>gini = 0.03<br/>samples = 66<br/>value = [1, 65]<br/>class = grapefruit>, fillcolor="#3c9fe5"] ;
146 -> 147 ;
148 [label=<diameter &le; 10.815<br/>gini = 0.133<br/>samples = 14<br/>value = [1, 13]<br/>class = grapefruit>, fillcolor="#48a5e7"] ;
147 -> 148 ;
149 [label=<gini = 0.0<br/>samples = 13<br/>value = [0, 13]<br/>class = grapefruit>, fillcolor="#399de5"] ;
148 -> 149 ;
150 [label=<gini = 0.0<br/>samples = 1<br/>value = [1, 0]<br/>class = orange>, fillcolor="#e58139"] ;
148 -> 150 ;
151 [label=<gini = 0.0<br/>samples = 52<br/>value = [0, 52]<br/>class = grapefruit>, fillcolor="#399de5"] ;
147 -> 151 ;
152 [label=<weight &le; 187.285<br/>gini = 0.408<br/>samples = 7<br/>value = [2, 5]<br/>class = grapefruit>, fillcolor="#88c4ef"] ;
146 -> 152 ;
153 [label=<gini = 0.0<br/>samples = 2<br/>value = [2, 0]<br/>class = orange>, fillcolor="#e58139"] ;
152 -> 153 ;
154 [label=<gini = 0.0<br/>samples = 5<br/>value = [0, 5]<br/>class = grapefruit>, fillcolor="#399de5"] ;
152 -> 154 ;
155 [label=<gini = 0.0<br/>samples = 13<br/>value = [13, 0]<br/>class = orange>, fillcolor="#e58139"] ;
85 -> 155 ;
156 [label=<gini = 0.0<br/>samples = 67<br/>value = [0, 67]<br/>class = grapefruit>, fillcolor="#399de5"] ;
84 -> 156 ;
157 [label=<gini = 0.0<br/>samples = 20<br/>value = [20, 0]<br/>class = orange>, fillcolor="#e58139"] ;
55 -> 157 ;
158 [label=<weight &le; 195.465<br/>gini = 0.068<br/>samples = 3194<br/>value = [112, 3082]<br/>class = grapefruit>, fillcolor="#40a1e6"] ;
46 -> 158 ;
159 [label=<diameter &le; 11.315<br/>gini = 0.188<br/>samples = 705<br/>value = [74, 631]<br/>class = grapefruit>, fillcolor="#50a8e8"] ;
158 -> 159 ;
160 [label=<weight &le; 192.695<br/>gini = 0.15<br/>samples = 687<br/>value = [56, 631]<br/>class = grapefruit>, fillcolor="#4ba6e7"] ;
159 -> 160 ;
161 [label=<diameter &le; 11.165<br/>gini = 0.221<br/>samples = 443<br/>value = [56, 387]<br/>class = grapefruit>, fillcolor="#56abe9"] ;
160 -> 161 ;
162 [label=<weight &le; 191.285<br/>gini = 0.148<br/>samples = 421<br/>value = [34, 387]<br/>class = grapefruit>, fillcolor="#4aa6e7"] ;
161 -> 162 ;
163 [label=<diameter &le; 11.075<br/>gini = 0.202<br/>samples = 290<br/>value = [33, 257]<br/>class = grapefruit>, fillcolor="#52aae8"] ;
162 -> 163 ;
164 [label=<diameter &le; 10.955<br/>gini = 0.14<br/>samples = 278<br/>value = [21, 257]<br/>class = grapefruit>, fillcolor="#49a5e7"] ;
163 -> 164 ;
165 [label=<gini = 0.0<br/>samples = 91<br/>value = [0, 91]<br/>class = grapefruit>, fillcolor="#399de5"] ;
164 -> 165 ;
166 [label=<weight &le; 189.435<br/>gini = 0.199<br/>samples = 187<br/>value = [21, 166]<br/>class = grapefruit>, fillcolor="#52a9e8"] ;
164 -> 166 ;
167 [label=<gini = 0.0<br/>samples = 10<br/>value = [10, 0]<br/>class = orange>, fillcolor="#e58139"] ;
166 -> 167 ;
168 [label=<diameter &le; 11.035<br/>gini = 0.117<br/>samples = 177<br/>value = [11, 166]<br/>class = grapefruit>, fillcolor="#46a3e7"] ;
166 -> 168 ;
169 [label=<weight &le; 189.635<br/>gini = 0.032<br/>samples = 123<br/>value = [2, 121]<br/>class = grapefruit>, fillcolor="#3c9fe5"] ;
168 -> 169 ;
170 [label=<diameter &le; 10.985<br/>gini = 0.147<br/>samples = 25<br/>value = [2, 23]<br/>class = grapefruit>, fillcolor="#4aa6e7"] ;
169 -> 170 ;
171 [label=<gini = 0.0<br/>samples = 23<br/>value = [0, 23]<br/>class = grapefruit>, fillcolor="#399de5"] ;
170 -> 171 ;
172 [label=<gini = 0.0<br/>samples = 2<br/>value = [2, 0]<br/>class = orange>, fillcolor="#e58139"] ;
170 -> 172 ;
173 [label=<gini = 0.0<br/>samples = 98<br/>value = [0, 98]<br/>class = grapefruit>, fillcolor="#399de5"] ;
169 -> 173 ;
174 [label=<weight &le; 190.585<br/>gini = 0.278<br/>samples = 54<br/>value = [9, 45]<br/>class = grapefruit>, fillcolor="#61b1ea"] ;
168 -> 174 ;
175 [label=<gini = 0.0<br/>samples = 9<br/>value = [9, 0]<br/>class = orange>, fillcolor="#e58139"] ;
174 -> 175 ;
176 [label=<gini = 0.0<br/>samples = 45<br/>value = [0, 45]<br/>class = grapefruit>, fillcolor="#399de5"] ;
174 -> 176 ;
177 [label=<gini = 0.0<br/>samples = 12<br/>value = [12, 0]<br/>class = orange>, fillcolor="#e58139"] ;
163 -> 177 ;
178 [label=<diameter &le; 11.155<br/>gini = 0.015<br/>samples = 131<br/>value = [1, 130]<br/>class = grapefruit>, fillcolor="#3b9ee5"] ;
162 -> 178 ;
179 [label=<gini = 0.0<br/>samples = 125<br/>value = [0, 125]<br/>class = grapefruit>, fillcolor="#399de5"] ;
178 -> 179 ;
180 [label=<weight &le; 192.11<br/>gini = 0.278<br/>samples = 6<br/>value = [1, 5]<br/>class = grapefruit>, fillcolor="#61b1ea"] ;
178 -> 180 ;
181 [label=<gini = 0.0<br/>samples = 1<br/>value = [1, 0]<br/>class = orange>, fillcolor="#e58139"] ;
180 -> 181 ;
182 [label=<gini = 0.0<br/>samples = 5<br/>value = [0, 5]<br/>class = grapefruit>, fillcolor="#399de5"] ;
180 -> 182 ;
183 [label=<gini = 0.0<br/>samples = 22<br/>value = [22, 0]<br/>class = orange>, fillcolor="#e58139"] ;
161 -> 183 ;
184 [label=<gini = 0.0<br/>samples = 244<br/>value = [0, 244]<br/>class = grapefruit>, fillcolor="#399de5"] ;
160 -> 184 ;
185 [label=<gini = 0.0<br/>samples = 18<br/>value = [18, 0]<br/>class = orange>, fillcolor="#e58139"] ;
159 -> 185 ;
186 [label=<diameter &le; 12.045<br/>gini = 0.03<br/>samples = 2489<br/>value = [38, 2451]<br/>class = grapefruit>, fillcolor="#3c9fe5"] ;
158 -> 186 ;
187 [label=<weight &le; 206.47<br/>gini = 0.06<br/>samples = 1025<br/>value = [32, 993]<br/>class = grapefruit>, fillcolor="#3fa0e6"] ;
186 -> 187 ;
188 [label=<diameter &le; 11.485<br/>gini = 0.053<br/>samples = 1021<br/>value = [28, 993]<br/>class = grapefruit>, fillcolor="#3fa0e6"] ;
187 -> 188 ;
189 [label=<gini = 0.0<br/>samples = 242<br/>value = [0, 242]<br/>class = grapefruit>, fillcolor="#399de5"] ;
188 -> 189 ;
190 [label=<weight &le; 197.84<br/>gini = 0.069<br/>samples = 779<br/>value = [28, 751]<br/>class = grapefruit>, fillcolor="#40a1e6"] ;
188 -> 190 ;
191 [label=<gini = 0.0<br/>samples = 10<br/>value = [10, 0]<br/>class = orange>, fillcolor="#e58139"] ;
190 -> 191 ;
192 [label=<diameter &le; 11.815<br/>gini = 0.046<br/>samples = 769<br/>value = [18, 751]<br/>class = grapefruit>, fillcolor="#3e9fe6"] ;
190 -> 192 ;
193 [label=<weight &le; 203.08<br/>gini = 0.066<br/>samples = 467<br/>value = [16, 451]<br/>class = grapefruit>, fillcolor="#40a0e6"] ;
192 -> 193 ;
194 [label=<diameter &le; 11.575<br/>gini = 0.054<br/>samples = 464<br/>value = [13, 451]<br/>class = grapefruit>, fillcolor="#3fa0e6"] ;
193 -> 194 ;
195 [label=<gini = 0.0<br/>samples = 114<br/>value = [0, 114]<br/>class = grapefruit>, fillcolor="#399de5"] ;
194 -> 195 ;
196 [label=<weight &le; 199.175<br/>gini = 0.072<br/>samples = 350<br/>value = [13, 337]<br/>class = grapefruit>, fillcolor="#41a1e6"] ;
194 -> 196 ;
197 [label=<gini = 0.0<br/>samples = 5<br/>value = [5, 0]<br/>class = orange>, fillcolor="#e58139"] ;
196 -> 197 ;
198 [label=<weight &le; 199.555<br/>gini = 0.045<br/>samples = 345<br/>value = [8, 337]<br/>class = grapefruit>, fillcolor="#3e9fe6"] ;
196 -> 198 ;
199 [label=<diameter &le; 11.62<br/>gini = 0.159<br/>samples = 23<br/>value = [2, 21]<br/>class = grapefruit>, fillcolor="#4ca6e7"] ;
198 -> 199 ;
200 [label=<gini = 0.0<br/>samples = 21<br/>value = [0, 21]<br/>class = grapefruit>, fillcolor="#399de5"] ;
199 -> 200 ;
201 [label=<gini = 0.0<br/>samples = 2<br/>value = [2, 0]<br/>class = orange>, fillcolor="#e58139"] ;
199 -> 201 ;
202 [label=<diameter &le; 11.765<br/>gini = 0.037<br/>samples = 322<br/>value = [6, 316]<br/>class = grapefruit>, fillcolor="#3d9fe5"] ;
198 -> 202 ;
203 [label=<weight &le; 200.385<br/>gini = 0.023<br/>samples = 256<br/>value = [3, 253]<br/>class = grapefruit>, fillcolor="#3b9ee5"] ;
202 -> 203 ;
204 [label=<diameter &le; 11.66<br/>gini = 0.064<br/>samples = 90<br/>value = [3, 87]<br/>class = grapefruit>, fillcolor="#40a0e6"] ;
203 -> 204 ;
205 [label=<gini = 0.0<br/>samples = 87<br/>value = [0, 87]<br/>class = grapefruit>, fillcolor="#399de5"] ;
204 -> 205 ;
206 [label=<gini = 0.0<br/>samples = 3<br/>value = [3, 0]<br/>class = orange>, fillcolor="#e58139"] ;
204 -> 206 ;
207 [label=<gini = 0.0<br/>samples = 166<br/>value = [0, 166]<br/>class = grapefruit>, fillcolor="#399de5"] ;
203 -> 207 ;
208 [label=<weight &le; 202.43<br/>gini = 0.087<br/>samples = 66<br/>value = [3, 63]<br/>class = grapefruit>, fillcolor="#42a2e6"] ;
202 -> 208 ;
209 [label=<gini = 0.0<br/>samples = 3<br/>value = [3, 0]<br/>class = orange>, fillcolor="#e58139"] ;
208 -> 209 ;
210 [label=<gini = 0.0<br/>samples = 63<br/>value = [0, 63]<br/>class = grapefruit>, fillcolor="#399de5"] ;
208 -> 210 ;
211 [label=<gini = 0.0<br/>samples = 3<br/>value = [3, 0]<br/>class = orange>, fillcolor="#e58139"] ;
193 -> 211 ;
212 [label=<weight &le; 205.435<br/>gini = 0.013<br/>samples = 302<br/>value = [2, 300]<br/>class = grapefruit>, fillcolor="#3a9ee5"] ;
192 -> 212 ;
213 [label=<gini = 0.0<br/>samples = 222<br/>value = [0, 222]<br/>class = grapefruit>, fillcolor="#399de5"] ;
212 -> 213 ;
214 [label=<diameter &le; 11.945<br/>gini = 0.049<br/>samples = 80<br/>value = [2, 78]<br/>class = grapefruit>, fillcolor="#3ea0e6"] ;
212 -> 214 ;
215 [label=<gini = 0.0<br/>samples = 2<br/>value = [2, 0]<br/>class = orange>, fillcolor="#e58139"] ;
214 -> 215 ;
216 [label=<gini = 0.0<br/>samples = 78<br/>value = [0, 78]<br/>class = grapefruit>, fillcolor="#399de5"] ;
214 -> 216 ;
217 [label=<gini = 0.0<br/>samples = 4<br/>value = [4, 0]<br/>class = orange>, fillcolor="#e58139"] ;
187 -> 217 ;
218 [label=<diameter &le; 12.875<br/>gini = 0.008<br/>samples = 1464<br/>value = [6, 1458]<br/>class = grapefruit>, fillcolor="#3a9de5"] ;
186 -> 218 ;
219 [label=<weight &le; 224.43<br/>gini = 0.014<br/>samples = 867<br/>value = [6, 861]<br/>class = grapefruit>, fillcolor="#3a9ee5"] ;
218 -> 219 ;
220 [label=<weight &le; 217.025<br/>gini = 0.009<br/>samples = 865<br/>value = [4, 861]<br/>class = grapefruit>, fillcolor="#3a9de5"] ;
219 -> 220 ;
221 [label=<diameter &le; 12.225<br/>gini = 0.005<br/>samples = 770<br/>value = [2, 768]<br/>class = grapefruit>, fillcolor="#3a9de5"] ;
220 -> 221 ;
222 [label=<weight &le; 208.895<br/>gini = 0.018<br/>samples = 225<br/>value = [2, 223]<br/>class = grapefruit>, fillcolor="#3b9ee5"] ;
221 -> 222 ;
223 [label=<gini = 0.0<br/>samples = 223<br/>value = [0, 223]<br/>class = grapefruit>, fillcolor="#399de5"] ;
222 -> 223 ;
224 [label=<gini = 0.0<br/>samples = 2<br/>value = [2, 0]<br/>class = orange>, fillcolor="#e58139"] ;
222 -> 224 ;
225 [label=<gini = 0.0<br/>samples = 545<br/>value = [0, 545]<br/>class = grapefruit>, fillcolor="#399de5"] ;
221 -> 225 ;
226 [label=<diameter &le; 12.65<br/>gini = 0.041<br/>samples = 95<br/>value = [2, 93]<br/>class = grapefruit>, fillcolor="#3d9fe6"] ;
220 -> 226 ;
227 [label=<gini = 0.0<br/>samples = 2<br/>value = [2, 0]<br/>class = orange>, fillcolor="#e58139"] ;
226 -> 227 ;
228 [label=<gini = 0.0<br/>samples = 93<br/>value = [0, 93]<br/>class = grapefruit>, fillcolor="#399de5"] ;
226 -> 228 ;
229 [label=<gini = 0.0<br/>samples = 2<br/>value = [2, 0]<br/>class = orange>, fillcolor="#e58139"] ;
219 -> 229 ;
230 [label=<gini = 0.0<br/>samples = 597<br/>value = [0, 597]<br/>class = grapefruit>, fillcolor="#399de5"] ;
218 -> 230 ;
}